svm_type c_svc
kernel_type linear
nr_class 2
total_sv 2
rho -0.054109407023656686
label 1 2
nr_sv 1 1
SV
0.013002693585589569 1:3.0394263 2:4.87495 4:3.6853564 6:3.4109786 9:3.811281 
-0.013002693585589569 18:1.1551261 2:4.87495 19:4.108381 21:1.7729318 22:2.8816297 23:3.908191 25:3.358519 26:1.043845 
